[ 5189.3214856   4954.3392714   5308.36147149  5313.94320487  5315.3635867
  5320.46749154  5164.29972964  5303.29172384  5322.51244073  5149.30800258
  5240.1825334   5301.10266456  4611.86142041  5312.97005426  5333.41629554
  5297.36072622  5317.92542998  5290.3210104   5134.32626204  5305.0878589 ],[ 14533.57020245  13874.62471324  14866.44887071  14882.16946796
  14886.05414406  14900.03148367  14461.39138429  14852.09773465
  14905.85287651  14420.22572191  14675.77574694  14844.75375914
  12915.52473894  14877.72097111  14937.1050251   14836.05194495
  14892.54301492  14815.76364678  14378.9546618   14856.89505873],[ 5186.81457563  4951.87240109  5305.77939814  5311.16112117  5313.12548945
  5317.58320065  5161.35397424  5301.37839942  5320.34827692  5146.92462263
  5238.02982471  5297.8749483   4609.60425834  5310.07756013  5331.23215565
  5294.96817451  5315.01317074  5288.15144477  5131.98681202  5302.64026794],[ 14566.399748    13906.76627877  14899.96982843  14915.65977645
  14919.76547267  14933.57172182  14494.68045406  14885.6483523
  14939.65713013  14453.05531493  14709.32377078  14878.29988705
  12944.93466846  14911.38064229  14970.86992234  14869.45283569
  14926.13549842  14849.49716322  14411.83162877  14890.26173956],[ 5184.17922511  4949.20055071  5302.36593275  5308.36875481  5309.4782302
  5314.93249516  5158.10839459  5297.95017121  5316.83890329  5143.49040078
  5234.5526257   5294.6431614   4607.28828814  5307.08518567  5327.68623694
  5292.03142331  5311.7738312   5284.48048316  5129.31586085  5299.0662125 ],[ 14499.11793268  13841.64266656  14830.96594371  14846.64819103
  14850.61347169  14864.3642751   14427.08344639  14816.64764587
  14870.42789548  14386.1591059   14641.11351639  14809.34510281
  12884.96288344  14842.26632771  14901.55273443  14800.57730666
  14857.17986857  14780.5346059   14345.17719652  14821.21344947],[ 5185.09405171  4950.24822633  5303.6736169   5309.31452476  5310.98571044
  5315.34686072  5159.4115507   5298.63372549  5317.36967264  5144.90867562
  5235.92763301  5296.00993845  4607.83947594  5307.89453829  5328.67499042
  5293.15726141  5313.25222989  5285.97037187  5130.41680534  5300.14920428],[ 14540.86455799  13881.77125582  14874.18215105  14889.82842093
  14893.6841367   14907.85528617  14469.14575397  14859.81304017
  14913.58052132  14428.17025618  14683.47498851  14852.18602469
  12922.7775252   14885.69722105  14944.81507891  14843.70415285
  14900.3140025   14823.59289504  14386.77852499  14864.39772408],[ 5195.42288084  4960.56317794  5314.88527193  5319.97527797  5321.57784912
  5326.83324843  5170.03983222  5309.85902615  5328.87305181  5155.65824715
  5246.41955788  5306.93046302  4616.96459954  5318.2844938   5340.16628026
  5303.36759802  5324.31720642  5296.05406227  5140.90798974  5311.49521175],[ 14528.8782054   13870.37419208  14861.85638961  14877.38991468
  14881.46346731  14895.35560231  14456.70135019  14847.38776951
  14901.30742077  14415.88632518  14671.29838438  14840.07081979
  12911.28508266  14873.33102887  14932.50059652  14831.5138029
  14887.96499172  14810.91537295  14374.62901239  14852.20197082][ -84.7471262   -84.64920696 -129.0137978  -135.87407442 -139.99935497
 -140.1940854  -140.03141736 -140.10597363 -140.6152945  -140.51534654],[ -73.43478118  -73.92587015 -112.59095138 -118.26069991 -122.04778715
 -121.81915999 -121.83118919 -122.50648697 -122.36287931 -122.48276124],[ -92.46007762  -92.64466642 -141.18455857 -147.58908101 -152.37473319
 -152.04098939 -152.63893539 -153.11519892 -152.65915752 -152.45225274],[ -92.32135454  -92.7475499  -141.69551156 -147.98171022 -152.50043125
 -153.16050545 -153.3004268  -153.24861296 -153.8148474  -153.95225154],[ -92.8246153   -92.79900411 -141.71663295 -148.2759336  -152.83435773
 -152.97420664 -153.65236604 -153.70098214 -154.12203571 -153.4832788 ],[ -93.08881357  -93.70298678 -141.63730973 -149.04493483 -153.22586472
 -153.40230935 -154.37591381 -154.70224202 -154.44261815 -154.21165152],[ -83.2609378   -83.35919259 -127.06946916 -132.978017   -137.07166072
 -137.96617621 -137.68156519 -138.11571085 -138.20422616 -138.56676259],[ -92.04506014  -91.73706782 -140.30597448 -147.10981319 -151.29962567
 -152.12042632 -151.96385005 -152.0571583  -152.59076359 -152.32900546],[ -93.74514922  -93.1271751  -141.94380813 -149.46814618 -153.75292401
 -154.31088865 -154.05539248 -154.65677348 -154.26855064 -154.71527806],[ -82.9544467   -82.37379706 -125.83101376 -131.82713026 -136.25867725
 -136.09334775 -136.70289693 -137.08315523 -136.64931091 -136.76779606],[ -87.51071487  -88.15875875 -133.84244664 -140.65254425 -144.48761441
 -145.34265905 -144.91172731 -145.08730259 -145.88773357 -145.51327368],[ -91.98017303  -91.60855333 -140.08389156 -146.23797054 -151.17623496
 -151.77504346 -151.60590066 -152.3364684  -151.68725709 -152.3434623 ],[ -64.14395257  -64.21951582  -98.37149696 -102.38105018 -105.38129188
 -106.31898813 -105.85310733 -106.53222899 -106.09076651 -106.48545988],[ -92.74231319  -92.61929583 -141.68555207 -147.40572066 -152.69776397
 -152.83937254 -152.55983602 -153.64449698 -153.32426438 -153.81447139],[ -94.17855178  -93.77362532 -143.26894148 -150.53033311 -155.11001443
 -155.68320638 -155.87333364 -155.74058963 -156.20797429 -155.58207454],[ -91.87631037  -91.70360863 -140.10956733 -145.83195582 -150.49086967
 -151.50341225 -150.9809322  -151.71928924 -152.04450977 -151.55003385],[ -93.21764264  -93.53863336 -141.61243571 -149.03894739 -152.6792414
 -153.37298121 -154.186448   -153.57925769 -153.8542813  -154.09273486],[ -91.48691051  -91.34463628 -138.84469336 -145.5079582  -149.66594107
 -150.60337464 -150.61323091 -150.60304001 -150.68484695 -151.12511301],[ -81.421278    -81.52566848 -124.99680569 -130.81221212 -134.52501708
 -134.92251242 -135.54673654 -136.00441654 -135.56025958 -135.34748846],[ -92.18969359  -92.14620303 -140.88566592 -146.99724281 -151.63434659
 -151.59506912 -152.35793852 -152.37143488 -152.66372395 -152.58544515]